digraph Tree {
node [shape=box, style="filled, rounded", color="black", fontname=helvetica] ;
edge [fontname=helvetica] ;
0 [label="oxy_min <= 4.05\ngini = 0.474\nsamples = 629\nvalue = [386, 243]\nclass = high", fillcolor="#e581395e"] ;
1 [label="oxy_min <= 3.95\ngini = 0.056\nsamples = 104\nvalue = [3, 101]\nclass = low", fillcolor="#399de5f7"] ;
0 -> 1 [labeldistance=2.5, labelangle=45, headlabel="True"] ;
2 [label="gini = 0.0\nsamples = 94\nvalue = [0, 94]\nclass = low", fillcolor="#399de5ff"] ;
1 -> 2 ;
3 [label="temp_max <= 30.5\ngini = 0.42\nsamples = 10\nvalue = [3, 7]\nclass = low", fillcolor="#399de592"] ;
1 -> 3 ;
4 [label="gini = 0.0\nsamples = 7\nvalue = [0, 7]\nclass = low", fillcolor="#399de5ff"] ;
3 -> 4 ;
5 [label="gini = 0.0\nsamples = 3\nvalue = [3, 0]\nclass = high", fillcolor="#e58139ff"] ;
3 -> 5 ;
6 [label="temp_max <= 34.5\ngini = 0.395\nsamples = 525\nvalue = [383, 142]\nclass = high", fillcolor="#e58139a0"] ;
0 -> 6 [labeldistance=2.5, labelangle=-45, headlabel="False"] ;
7 [label="ph_min <= 6.95\ngini = 0.26\nsamples = 442\nvalue = [374, 68]\nclass = high", fillcolor="#e58139d1"] ;
6 -> 7 ;
8 [label="temp_max <= 24.5\ngini = 0.489\nsamples = 82\nvalue = [47, 35]\nclass = high", fillcolor="#e5813941"] ;
7 -> 8 ;
9 [label="ph_max <= 7.5\ngini = 0.111\nsamples = 17\nvalue = [1, 16]\nclass = low", fillcolor="#399de5ef"] ;
8 -> 9 ;
10 [label="gini = 0.0\nsamples = 1\nvalue = [1, 0]\nclass = high", fillcolor="#e58139ff"] ;
9 -> 10 ;
11 [label="gini = 0.0\nsamples = 16\nvalue = [0, 16]\nclass = low", fillcolor="#399de5ff"] ;
9 -> 11 ;
12 [label="ph_min <= 6.35\ngini = 0.414\nsamples = 65\nvalue = [46, 19]\nclass = high", fillcolor="#e5813996"] ;
8 -> 12 ;
13 [label="temp_min <= 25.0\ngini = 0.278\nsamples = 6\nvalue = [1, 5]\nclass = low", fillcolor="#399de5cc"] ;
12 -> 13 ;
14 [label="gini = 0.0\nsamples = 5\nvalue = [0, 5]\nclass = low", fillcolor="#399de5ff"] ;
13 -> 14 ;
15 [label="gini = 0.0\nsamples = 1\nvalue = [1, 0]\nclass = high", fillcolor="#e58139ff"] ;
13 -> 15 ;
16 [label="ph_max <= 8.55\ngini = 0.362\nsamples = 59\nvalue = [45, 14]\nclass = high", fillcolor="#e58139b0"] ;
12 -> 16 ;
17 [label="oxy_max <= 9.6\ngini = 0.316\nsamples = 56\nvalue = [45, 11]\nclass = high", fillcolor="#e58139c1"] ;
16 -> 17 ;
18 [label="temp_min <= 9.5\ngini = 0.26\nsamples = 52\nvalue = [44, 8]\nclass = high", fillcolor="#e58139d1"] ;
17 -> 18 ;
19 [label="gini = 0.0\nsamples = 1\nvalue = [0, 1]\nclass = low", fillcolor="#399de5ff"] ;
18 -> 19 ;
20 [label="temp_min <= 20.5\ngini = 0.237\nsamples = 51\nvalue = [44, 7]\nclass = high", fillcolor="#e58139d6"] ;
18 -> 20 ;
21 [label="oxy_max <= 8.95\ngini = 0.069\nsamples = 28\nvalue = [27, 1]\nclass = high", fillcolor="#e58139f6"] ;
20 -> 21 ;
22 [label="gini = 0.0\nsamples = 24\nvalue = [24, 0]\nclass = high", fillcolor="#e58139ff"] ;
21 -> 22 ;
23 [label="temp_max <= 29.0\ngini = 0.375\nsamples = 4\nvalue = [3, 1]\nclass = high", fillcolor="#e58139aa"] ;
21 -> 23 ;
24 [label="gini = 0.0\nsamples = 1\nvalue = [0, 1]\nclass = low", fillcolor="#399de5ff"] ;
23 -> 24 ;
25 [label="gini = 0.0\nsamples = 3\nvalue = [3, 0]\nclass = high", fillcolor="#e58139ff"] ;
23 -> 25 ;
26 [label="oxy_min <= 4.55\ngini = 0.386\nsamples = 23\nvalue = [17, 6]\nclass = high", fillcolor="#e58139a5"] ;
20 -> 26 ;
27 [label="gini = 0.0\nsamples = 2\nvalue = [0, 2]\nclass = low", fillcolor="#399de5ff"] ;
26 -> 27 ;
28 [label="temp_min <= 22.5\ngini = 0.308\nsamples = 21\nvalue = [17, 4]\nclass = high", fillcolor="#e58139c3"] ;
26 -> 28 ;
29 [label="gini = 0.0\nsamples = 7\nvalue = [7, 0]\nclass = high", fillcolor="#e58139ff"] ;
28 -> 29 ;
30 [label="ph_max <= 8.15\ngini = 0.408\nsamples = 14\nvalue = [10, 4]\nclass = high", fillcolor="#e5813999"] ;
28 -> 30 ;
31 [label="temp_min <= 23.5\ngini = 0.298\nsamples = 11\nvalue = [9, 2]\nclass = high", fillcolor="#e58139c6"] ;
30 -> 31 ;
32 [label="gini = 0.0\nsamples = 1\nvalue = [0, 1]\nclass = low", fillcolor="#399de5ff"] ;
31 -> 32 ;
33 [label="oxy_max <= 8.15\ngini = 0.18\nsamples = 10\nvalue = [9, 1]\nclass = high", fillcolor="#e58139e3"] ;
31 -> 33 ;
34 [label="gini = 0.0\nsamples = 8\nvalue = [8, 0]\nclass = high", fillcolor="#e58139ff"] ;
33 -> 34 ;
35 [label="oxy_max <= 8.65\ngini = 0.5\nsamples = 2\nvalue = [1, 1]\nclass = high", fillcolor="#e5813900"] ;
33 -> 35 ;
36 [label="gini = 0.0\nsamples = 1\nvalue = [0, 1]\nclass = low", fillcolor="#399de5ff"] ;
35 -> 36 ;
37 [label="gini = 0.0\nsamples = 1\nvalue = [1, 0]\nclass = high", fillcolor="#e58139ff"] ;
35 -> 37 ;
38 [label="oxy_max <= 7.7\ngini = 0.444\nsamples = 3\nvalue = [1, 2]\nclass = low", fillcolor="#399de57f"] ;
30 -> 38 ;
39 [label="gini = 0.0\nsamples = 2\nvalue = [0, 2]\nclass = low", fillcolor="#399de5ff"] ;
38 -> 39 ;
40 [label="gini = 0.0\nsamples = 1\nvalue = [1, 0]\nclass = high", fillcolor="#e58139ff"] ;
38 -> 40 ;
41 [label="oxy_min <= 5.9\ngini = 0.375\nsamples = 4\nvalue = [1, 3]\nclass = low", fillcolor="#399de5aa"] ;
17 -> 41 ;
42 [label="gini = 0.0\nsamples = 1\nvalue = [1, 0]\nclass = high", fillcolor="#e58139ff"] ;
41 -> 42 ;
43 [label="gini = 0.0\nsamples = 3\nvalue = [0, 3]\nclass = low", fillcolor="#399de5ff"] ;
41 -> 43 ;
44 [label="gini = 0.0\nsamples = 3\nvalue = [0, 3]\nclass = low", fillcolor="#399de5ff"] ;
16 -> 44 ;
45 [label="oxy_min <= 4.95\ngini = 0.167\nsamples = 360\nvalue = [327, 33]\nclass = high", fillcolor="#e58139e5"] ;
7 -> 45 ;
46 [label="temp_min <= 19.5\ngini = 0.491\nsamples = 51\nvalue = [29, 22]\nclass = high", fillcolor="#e581393e"] ;
45 -> 46 ;
47 [label="temp_min <= 12.5\ngini = 0.346\nsamples = 18\nvalue = [4, 14]\nclass = low", fillcolor="#399de5b6"] ;
46 -> 47 ;
48 [label="oxy_max <= 7.55\ngini = 0.48\nsamples = 5\nvalue = [3, 2]\nclass = high", fillcolor="#e5813955"] ;
47 -> 48 ;
49 [label="gini = 0.0\nsamples = 2\nvalue = [0, 2]\nclass = low", fillcolor="#399de5ff"] ;
48 -> 49 ;
50 [label="gini = 0.0\nsamples = 3\nvalue = [3, 0]\nclass = high", fillcolor="#e58139ff"] ;
48 -> 50 ;
51 [label="ph_max <= 8.1\ngini = 0.142\nsamples = 13\nvalue = [1, 12]\nclass = low", fillcolor="#399de5ea"] ;
47 -> 51 ;
52 [label="gini = 0.0\nsamples = 1\nvalue = [1, 0]\nclass = high", fillcolor="#e58139ff"] ;
51 -> 52 ;
53 [label="gini = 0.0\nsamples = 12\nvalue = [0, 12]\nclass = low", fillcolor="#399de5ff"] ;
51 -> 53 ;
54 [label="oxy_max <= 9.3\ngini = 0.367\nsamples = 33\nvalue = [25, 8]\nclass = high", fillcolor="#e58139ad"] ;
46 -> 54 ;
55 [label="oxy_max <= 4.9\ngini = 0.312\nsamples = 31\nvalue = [25, 6]\nclass = high", fillcolor="#e58139c2"] ;
54 -> 55 ;
56 [label="gini = 0.0\nsamples = 1\nvalue = [0, 1]\nclass = low", fillcolor="#399de5ff"] ;
55 -> 56 ;
57 [label="ph_min <= 7.95\ngini = 0.278\nsamples = 30\nvalue = [25, 5]\nclass = high", fillcolor="#e58139cc"] ;
55 -> 57 ;
58 [label="ph_max <= 8.3\ngini = 0.238\nsamples = 29\nvalue = [25, 4]\nclass = high", fillcolor="#e58139d6"] ;
57 -> 58 ;
59 [label="gini = 0.0\nsamples = 10\nvalue = [10, 0]\nclass = high", fillcolor="#e58139ff"] ;
58 -> 59 ;
60 [label="ph_max <= 8.45\ngini = 0.332\nsamples = 19\nvalue = [15, 4]\nclass = high", fillcolor="#e58139bb"] ;
58 -> 60 ;
61 [label="oxy_max <= 7.2\ngini = 0.5\nsamples = 6\nvalue = [3, 3]\nclass = high", fillcolor="#e5813900"] ;
60 -> 61 ;
62 [label="gini = 0.0\nsamples = 1\nvalue = [1, 0]\nclass = high", fillcolor="#e58139ff"] ;
61 -> 62 ;
63 [label="oxy_min <= 4.6\ngini = 0.48\nsamples = 5\nvalue = [2, 3]\nclass = low", fillcolor="#399de555"] ;
61 -> 63 ;
64 [label="gini = 0.0\nsamples = 2\nvalue = [0, 2]\nclass = low", fillcolor="#399de5ff"] ;
63 -> 64 ;
65 [label="oxy_max <= 8.4\ngini = 0.444\nsamples = 3\nvalue = [2, 1]\nclass = high", fillcolor="#e581397f"] ;
63 -> 65 ;
66 [label="gini = 0.0\nsamples = 2\nvalue = [2, 0]\nclass = high", fillcolor="#e58139ff"] ;
65 -> 66 ;
67 [label="gini = 0.0\nsamples = 1\nvalue = [0, 1]\nclass = low", fillcolor="#399de5ff"] ;
65 -> 67 ;
68 [label="oxy_max <= 6.35\ngini = 0.142\nsamples = 13\nvalue = [12, 1]\nclass = high", fillcolor="#e58139ea"] ;
60 -> 68 ;
69 [label="ph_max <= 8.65\ngini = 0.5\nsamples = 2\nvalue = [1, 1]\nclass = high", fillcolor="#e5813900"] ;
68 -> 69 ;
70 [label="gini = 0.0\nsamples = 1\nvalue = [0, 1]\nclass = low", fillcolor="#399de5ff"] ;
69 -> 70 ;
71 [label="gini = 0.0\nsamples = 1\nvalue = [1, 0]\nclass = high", fillcolor="#e58139ff"] ;
69 -> 71 ;
72 [label="gini = 0.0\nsamples = 11\nvalue = [11, 0]\nclass = high", fillcolor="#e58139ff"] ;
68 -> 72 ;
73 [label="gini = 0.0\nsamples = 1\nvalue = [0, 1]\nclass = low", fillcolor="#399de5ff"] ;
57 -> 73 ;
74 [label="gini = 0.0\nsamples = 2\nvalue = [0, 2]\nclass = low", fillcolor="#399de5ff"] ;
54 -> 74 ;
75 [label="temp_min <= 4.85\ngini = 0.069\nsamples = 309\nvalue = [298, 11]\nclass = high", fillcolor="#e58139f6"] ;
45 -> 75 ;
76 [label="gini = 0.0\nsamples = 4\nvalue = [0, 4]\nclass = low", fillcolor="#399de5ff"] ;
75 -> 76 ;
77 [label="ph_max <= 9.05\ngini = 0.045\nsamples = 305\nvalue = [298, 7]\nclass = high", fillcolor="#e58139f9"] ;
75 -> 77 ;
78 [label="temp_max <= 8.4\ngini = 0.032\nsamples = 303\nvalue = [298, 5]\nclass = high", fillcolor="#e58139fb"] ;
77 -> 78 ;
79 [label="oxy_min <= 9.0\ngini = 0.444\nsamples = 3\nvalue = [1, 2]\nclass = low", fillcolor="#399de57f"] ;
78 -> 79 ;
80 [label="gini = 0.0\nsamples = 2\nvalue = [0, 2]\nclass = low", fillcolor="#399de5ff"] ;
79 -> 80 ;
81 [label="gini = 0.0\nsamples = 1\nvalue = [1, 0]\nclass = high", fillcolor="#e58139ff"] ;
79 -> 81 ;
82 [label="oxy_min <= 5.55\ngini = 0.02\nsamples = 300\nvalue = [297, 3]\nclass = high", fillcolor="#e58139fc"] ;
78 -> 82 ;
83 [label="oxy_max <= 8.7\ngini = 0.13\nsamples = 43\nvalue = [40, 3]\nclass = high", fillcolor="#e58139ec"] ;
82 -> 83 ;
84 [label="gini = 0.0\nsamples = 34\nvalue = [34, 0]\nclass = high", fillcolor="#e58139ff"] ;
83 -> 84 ;
85 [label="temp_min <= 20.0\ngini = 0.444\nsamples = 9\nvalue = [6, 3]\nclass = high", fillcolor="#e581397f"] ;
83 -> 85 ;
86 [label="gini = 0.0\nsamples = 5\nvalue = [5, 0]\nclass = high", fillcolor="#e58139ff"] ;
85 -> 86 ;
87 [label="temp_min <= 23.5\ngini = 0.375\nsamples = 4\nvalue = [1, 3]\nclass = low", fillcolor="#399de5aa"] ;
85 -> 87 ;
88 [label="gini = 0.0\nsamples = 3\nvalue = [0, 3]\nclass = low", fillcolor="#399de5ff"] ;
87 -> 88 ;
89 [label="gini = 0.0\nsamples = 1\nvalue = [1, 0]\nclass = high", fillcolor="#e58139ff"] ;
87 -> 89 ;
90 [label="gini = 0.0\nsamples = 257\nvalue = [257, 0]\nclass = high", fillcolor="#e58139ff"] ;
82 -> 90 ;
91 [label="gini = 0.0\nsamples = 2\nvalue = [0, 2]\nclass = low", fillcolor="#399de5ff"] ;
77 -> 91 ;
92 [label="temp_max <= 36.5\ngini = 0.193\nsamples = 83\nvalue = [9, 74]\nclass = low", fillcolor="#399de5e0"] ;
6 -> 92 ;
93 [label="oxy_min <= 6.1\ngini = 0.42\nsamples = 30\nvalue = [9, 21]\nclass = low", fillcolor="#399de592"] ;
92 -> 93 ;
94 [label="oxy_max <= 10.1\ngini = 0.231\nsamples = 15\nvalue = [2, 13]\nclass = low", fillcolor="#399de5d8"] ;
93 -> 94 ;
95 [label="ph_max <= 8.65\ngini = 0.133\nsamples = 14\nvalue = [1, 13]\nclass = low", fillcolor="#399de5eb"] ;
94 -> 95 ;
96 [label="gini = 0.0\nsamples = 10\nvalue = [0, 10]\nclass = low", fillcolor="#399de5ff"] ;
95 -> 96 ;
97 [label="ph_min <= 7.4\ngini = 0.375\nsamples = 4\nvalue = [1, 3]\nclass = low", fillcolor="#399de5aa"] ;
95 -> 97 ;
98 [label="gini = 0.0\nsamples = 3\nvalue = [0, 3]\nclass = low", fillcolor="#399de5ff"] ;
97 -> 98 ;
99 [label="gini = 0.0\nsamples = 1\nvalue = [1, 0]\nclass = high", fillcolor="#e58139ff"] ;
97 -> 99 ;
100 [label="gini = 0.0\nsamples = 1\nvalue = [1, 0]\nclass = high", fillcolor="#e58139ff"] ;
94 -> 100 ;
101 [label="oxy_min <= 6.5\ngini = 0.498\nsamples = 15\nvalue = [7, 8]\nclass = low", fillcolor="#399de520"] ;
93 -> 101 ;
102 [label="gini = 0.0\nsamples = 3\nvalue = [3, 0]\nclass = high", fillcolor="#e58139ff"] ;
101 -> 102 ;
103 [label="ph_max <= 8.15\ngini = 0.444\nsamples = 12\nvalue = [4, 8]\nclass = low", fillcolor="#399de57f"] ;
101 -> 103 ;
104 [label="ph_min <= 6.65\ngini = 0.219\nsamples = 8\nvalue = [1, 7]\nclass = low", fillcolor="#399de5db"] ;
103 -> 104 ;
105 [label="gini = 0.0\nsamples = 1\nvalue = [1, 0]\nclass = high", fillcolor="#e58139ff"] ;
104 -> 105 ;
106 [label="gini = 0.0\nsamples = 7\nvalue = [0, 7]\nclass = low", fillcolor="#399de5ff"] ;
104 -> 106 ;
107 [label="oxy_min <= 6.9\ngini = 0.375\nsamples = 4\nvalue = [3, 1]\nclass = high", fillcolor="#e58139aa"] ;
103 -> 107 ;
108 [label="gini = 0.0\nsamples = 1\nvalue = [0, 1]\nclass = low", fillcolor="#399de5ff"] ;
107 -> 108 ;
109 [label="gini = 0.0\nsamples = 3\nvalue = [3, 0]\nclass = high", fillcolor="#e58139ff"] ;
107 -> 109 ;
110 [label="gini = 0.0\nsamples = 53\nvalue = [0, 53]\nclass = low", fillcolor="#399de5ff"] ;
92 -> 110 ;
}